<?xml version="1.0"?>
<opencv_storage>
<stage8>
  <maxWeakCount>5</maxWeakCount>
  <stageThreshold>-1.7140166759490967e+00</stageThreshold>
  <weakClassifiers>
    <_>
      <internalNodes>
        0 -1 1010926 6.6077699884772301e-03</internalNodes>
      <leafValues>
        -6.8926554918289185e-01 5.2968037128448486e-01</leafValues></_>
    <_>
      <internalNodes>
        0 -1 1472798 5.7849823497235775e-03</internalNodes>
      <leafValues>
        2.4576076865196228e-01 -9.4334989786148071e-01</leafValues></_>
    <_>
      <internalNodes>
        0 -1 1492647 -1.0568600846454501e-03</internalNodes>
      <leafValues>
        2.9842785000801086e-01 -7.9264330863952637e-01</leafValues></_>
    <_>
      <internalNodes>
        0 -1 1956372 3.5107759758830070e-03</internalNodes>
      <leafValues>
        2.6633247733116150e-01 -9.4613212347030640e-01</leafValues></_>
    <_>
      <internalNodes>
        0 -1 1580041 6.5536517649888992e-04</internalNodes>
      <leafValues>
        -7.4420100450515747e-01 3.3586019277572632e-01</leafValues></_></weakClassifiers></stage8>
</opencv_storage>
