<?xml version="1.0"?>
<opencv_storage>
<stage11>
  <maxWeakCount>5</maxWeakCount>
  <stageThreshold>-1.2255791425704956e+00</stageThreshold>
  <weakClassifiers>
    <_>
      <internalNodes>
        0 -1 1079543 -4.4509097933769226e-03</internalNodes>
      <leafValues>
        3.7553647160530090e-01 -6.5280461311340332e-01</leafValues></_>
    <_>
      <internalNodes>
        0 -1 1698603 -4.6872850507497787e-03</internalNodes>
      <leafValues>
        4.9785205721855164e-01 -5.0980615615844727e-01</leafValues></_>
    <_>
      <internalNodes>
        0 -1 2280037 -2.1285167895257473e-03</internalNodes>
      <leafValues>
        7.2830796241760254e-01 -3.8265925645828247e-01</leafValues></_>
    <_>
      <internalNodes>
        0 -1 1460308 -2.6231834664940834e-02</internalNodes>
      <leafValues>
        -9.6141898632049561e-01 2.8749877214431763e-01</leafValues></_>
    <_>
      <internalNodes>
        0 -1 1309890 -2.0202065352350473e-03</internalNodes>
      <leafValues>
        2.2826135158538818e-01 -9.7546607255935669e-01</leafValues></_></weakClassifiers></stage11>
</opencv_storage>
