<?xml version="1.0"?>
<opencv_storage>
<cascade>
  <stageType>BOOST</stageType>
  <featureType>HAAR</featureType>
  <height>48</height>
  <width>48</width>
  <stageParams>
    <boostType>GAB</boostType>
    <minHitRate>9.9500000476837158e-01</minHitRate>
    <maxFalseAlarm>5.0000000000000000e-01</maxFalseAlarm>
    <weightTrimRate>9.4999999999999996e-01</weightTrimRate>
    <maxDepth>1</maxDepth>
    <maxWeakCount>100</maxWeakCount></stageParams>
  <featureParams>
    <maxCatCount>0</maxCatCount>
    <featSize>1</featSize>
    <mode>BASIC</mode></featureParams>
  <stageNum>7</stageNum>
  <stages>
    <!-- stage 0 -->
    <_>
      <maxWeakCount>2</maxWeakCount>
      <stageThreshold>-1.5221320092678070e-01</stageThreshold>
      <weakClassifiers>
        <_>
          <internalNodes>
            0 -1 11 -3.9783302694559097e-02</internalNodes>
          <leafValues>
            -9.0791898965835571e-01 8.4484392404556274e-01</leafValues></_>
        <_>
          <internalNodes>
            0 -1 17 1.1017837561666965e-02</internalNodes>
          <leafValues>
            -8.4026020765304565e-01 7.5570577383041382e-01</leafValues></_></weakClassifiers></_>
    <!-- stage 1 -->
    <_>
      <maxWeakCount>2</maxWeakCount>
      <stageThreshold>-1.5989370644092560e-01</stageThreshold>
      <weakClassifiers>
        <_>
          <internalNodes>
            0 -1 10 5.5693225003778934e-03</internalNodes>
          <leafValues>
            -8.6180424690246582e-01 7.8683966398239136e-01</leafValues></_>
        <_>
          <internalNodes>
            0 -1 9 1.2522563338279724e-03</internalNodes>
          <leafValues>
            -8.7837558984756470e-01 7.0191049575805664e-01</leafValues></_></weakClassifiers></_>
    <!-- stage 2 -->
    <_>
      <maxWeakCount>3</maxWeakCount>
      <stageThreshold>7.2219900786876678e-02</stageThreshold>
      <weakClassifiers>
        <_>
          <internalNodes>
            0 -1 16 -5.5968258529901505e-03</internalNodes>
          <leafValues>
            7.1128606796264648e-01 -9.0371990203857422e-01</leafValues></_>
        <_>
          <internalNodes>
            0 -1 4 -4.7167269513010979e-03</internalNodes>
          <leafValues>
            4.8726731538772583e-01 -9.7642534971237183e-01</leafValues></_>
        <_>
          <internalNodes>
            0 -1 0 -5.6892354041337967e-03</internalNodes>
          <leafValues>
            4.8867249488830566e-01 -9.0412181615829468e-01</leafValues></_></weakClassifiers></_>
    <!-- stage 3 -->
    <_>
      <maxWeakCount>4</maxWeakCount>
      <stageThreshold>-1.3535341024398804e+00</stageThreshold>
      <weakClassifiers>
        <_>
          <internalNodes>
            0 -1 8 -9.3284028116613626e-04</internalNodes>
          <leafValues>
            -7.8242677450180054e-01 6.8983960151672363e-01</leafValues></_>
        <_>
          <internalNodes>
            0 -1 14 3.4548637922853231e-03</internalNodes>
          <leafValues>
            -6.0143280029296875e-01 7.9315805435180664e-01</leafValues></_>
        <_>
          <internalNodes>
            0 -1 5 -1.6480889171361923e-03</internalNodes>
          <leafValues>
            5.7270699739456177e-01 -7.3467016220092773e-01</leafValues></_>
        <_>
          <internalNodes>
            0 -1 2 1.7519770190119743e-03</internalNodes>
          <leafValues>
            -6.2959522008895874e-01 6.4285200834274292e-01</leafValues></_></weakClassifiers></_>
    <!-- stage 4 -->
    <_>
      <maxWeakCount>1</maxWeakCount>
      <stageThreshold>6.0032105445861816e-01</stageThreshold>
      <weakClassifiers>
        <_>
          <internalNodes>
            0 -1 3 1.9905267283320427e-02</internalNodes>
          <leafValues>
            -9.8305082321166992e-01 6.0032105445861816e-01</leafValues></_></weakClassifiers></_>
    <!-- stage 5 -->
    <_>
      <maxWeakCount>4</maxWeakCount>
      <stageThreshold>-2.8222629427909851e-01</stageThreshold>
      <weakClassifiers>
        <_>
          <internalNodes>
            0 -1 6 -3.3875439316034317e-02</internalNodes>
          <leafValues>
            -7.3358350992202759e-01 7.4133086204528809e-01</leafValues></_>
        <_>
          <internalNodes>
            0 -1 7 4.6795969828963280e-03</internalNodes>
          <leafValues>
            -9.0663623809814453e-01 6.0311102867126465e-01</leafValues></_>
        <_>
          <internalNodes>
            0 -1 1 4.3802559375762939e-03</internalNodes>
          <leafValues>
            -5.5751317739486694e-01 7.5482714176177979e-01</leafValues></_>
        <_>
          <internalNodes>
            0 -1 15 1.0144346393644810e-02</internalNodes>
          <leafValues>
            4.4059225916862488e-01 -9.5558416843414307e-01</leafValues></_></weakClassifiers></_>
    <!-- stage 6 -->
    <_>
      <maxWeakCount>4</maxWeakCount>
      <stageThreshold>-3.0145934224128723e-01</stageThreshold>
      <weakClassifiers>
        <_>
          <internalNodes>
            0 -1 18 -1.6768069472163916e-03</internalNodes>
          <leafValues>
            -8.8524591922760010e-01 5.8670985698699951e-01</leafValues></_>
        <_>
          <internalNodes>
            0 -1 13 -2.1011503413319588e-03</internalNodes>
          <leafValues>
            -4.7456118464469910e-01 8.0178838968276978e-01</leafValues></_>
        <_>
          <internalNodes>
            0 -1 19 1.1762418784201145e-02</internalNodes>
          <leafValues>
            -5.6428408622741699e-01 6.6347569227218628e-01</leafValues></_>
        <_>
          <internalNodes>
            0 -1 12 -2.2307403851300478e-03</internalNodes>
          <leafValues>
            3.9487200975418091e-01 -9.3492382764816284e-01</leafValues></_></weakClassifiers></_></stages>
  <features>
    <_>
      <rects>
        <_>
          8 14 18 11 -1.</_>
        <_>
          17 14 9 11 2.</_></rects>
      <tilted>0</tilted></_>
    <_>
      <rects>
        <_>
          10 18 4 18 -1.</_>
        <_>
          10 18 2 9 2.</_>
        <_>
          12 27 2 9 2.</_></rects>
      <tilted>0</tilted></_>
    <_>
      <rects>
        <_>
          13 6 8 8 -1.</_>
        <_>
          13 6 4 4 2.</_>
        <_>
          17 10 4 4 2.</_></rects>
      <tilted>0</tilted></_>
    <_>
      <rects>
        <_>
          14 24 21 16 -1.</_>
        <_>
          14 32 21 8 2.</_></rects>
      <tilted>0</tilted></_>
    <_>
      <rects>
        <_>
          15 19 15 8 -1.</_>
        <_>
          15 23 15 4 2.</_></rects>
      <tilted>0</tilted></_>
    <_>
      <rects>
        <_>
          15 37 19 4 -1.</_>
        <_>
          15 39 19 2 2.</_></rects>
      <tilted>0</tilted></_>
    <_>
      <rects>
        <_>
          17 33 14 9 -1.</_>
        <_>
          17 36 14 3 2.</_></rects>
      <tilted>0</tilted></_>
    <_>
      <rects>
        <_>
          18 15 17 8 -1.</_>
        <_>
          18 19 17 4 2.</_></rects>
      <tilted>0</tilted></_>
    <_>
      <rects>
        <_>
          19 7 3 1 -1.</_>
        <_>
          20 7 1 1 2.</_></rects>
      <tilted>0</tilted></_>
    <_>
      <rects>
        <_>
          19 16 10 4 -1.</_>
        <_>
          19 18 10 2 2.</_></rects>
      <tilted>0</tilted></_>
    <_>
      <rects>
        <_>
          19 32 13 6 -1.</_>
        <_>
          19 35 13 3 2.</_></rects>
      <tilted>0</tilted></_>
    <_>
      <rects>
        <_>
          20 13 11 15 -1.</_>
        <_>
          20 18 11 5 2.</_></rects>
      <tilted>0</tilted></_>
    <_>
      <rects>
        <_>
          22 13 16 8 -1.</_>
        <_>
          22 13 8 4 2.</_>
        <_>
          30 17 8 4 2.</_></rects>
      <tilted>0</tilted></_>
    <_>
      <rects>
        <_>
          22 19 12 3 -1.</_>
        <_>
          26 19 4 3 2.</_></rects>
      <tilted>0</tilted></_>
    <_>
      <rects>
        <_>
          23 12 6 10 -1.</_>
        <_>
          23 12 3 5 2.</_>
        <_>
          26 17 3 5 2.</_></rects>
      <tilted>0</tilted></_>
    <_>
      <rects>
        <_>
          24 8 8 34 -1.</_>
        <_>
          24 25 8 17 2.</_></rects>
      <tilted>0</tilted></_>
    <_>
      <rects>
        <_>
          24 8 14 12 -1.</_>
        <_>
          24 14 14 6 2.</_></rects>
      <tilted>0</tilted></_>
    <_>
      <rects>
        <_>
          25 26 16 9 -1.</_>
        <_>
          33 26 8 9 2.</_></rects>
      <tilted>0</tilted></_>
    <_>
      <rects>
        <_>
          31 11 8 26 -1.</_>
        <_>
          31 24 8 13 2.</_></rects>
      <tilted>0</tilted></_>
    <_>
      <rects>
        <_>
          32 14 8 20 -1.</_>
        <_>
          36 14 4 20 2.</_></rects>
      <tilted>0</tilted></_></features></cascade>
</opencv_storage>
