<?xml version="1.0"?>
<opencv_storage>
<cascade>
  <stageType>BOOST</stageType>
  <featureType>HAAR</featureType>
  <height>48</height>
  <width>48</width>
  <stageParams>
    <boostType>GAB</boostType>
    <minHitRate>9.9500000476837158e-01</minHitRate>
    <maxFalseAlarm>5.0000000000000000e-01</maxFalseAlarm>
    <weightTrimRate>9.4999999999999996e-01</weightTrimRate>
    <maxDepth>1</maxDepth>
    <maxWeakCount>100</maxWeakCount></stageParams>
  <featureParams>
    <maxCatCount>0</maxCatCount>
    <featSize>1</featSize>
    <mode>BASIC</mode></featureParams>
  <stageNum>6</stageNum>
  <stages>
    <!-- stage 0 -->
    <_>
      <maxWeakCount>2</maxWeakCount>
      <stageThreshold>-3.4663411974906921e-01</stageThreshold>
      <weakClassifiers>
        <_>
          <internalNodes>
            0 -1 13 -3.7181086838245392e-02</internalNodes>
          <leafValues>
            -9.3988269567489624e-01 6.8838030099868774e-01</leafValues></_>
        <_>
          <internalNodes>
            0 -1 9 6.6939871758222580e-03</internalNodes>
          <leafValues>
            -9.3695199489593506e-01 5.9324860572814941e-01</leafValues></_></weakClassifiers></_>
    <!-- stage 1 -->
    <_>
      <maxWeakCount>4</maxWeakCount>
      <stageThreshold>-6.8144851922988892e-01</stageThreshold>
      <weakClassifiers>
        <_>
          <internalNodes>
            0 -1 12 1.9610966555774212e-03</internalNodes>
          <leafValues>
            -9.1011238098144531e-01 5.0558215379714966e-01</leafValues></_>
        <_>
          <internalNodes>
            0 -1 17 3.9193481206893921e-03</internalNodes>
          <leafValues>
            -7.1594339609146118e-01 7.0541012287139893e-01</leafValues></_>
        <_>
          <internalNodes>
            0 -1 19 -5.2705872803926468e-03</internalNodes>
          <leafValues>
            5.0603264570236206e-01 -9.1422814130783081e-01</leafValues></_>
        <_>
          <internalNodes>
            0 -1 18 8.4035955369472504e-03</internalNodes>
          <leafValues>
            -9.2463040351867676e-01 4.4314095377922058e-01</leafValues></_></weakClassifiers></_>
    <!-- stage 2 -->
    <_>
      <maxWeakCount>3</maxWeakCount>
      <stageThreshold>-9.5501273870468140e-01</stageThreshold>
      <weakClassifiers>
        <_>
          <internalNodes>
            0 -1 0 6.0964934527873993e-03</internalNodes>
          <leafValues>
            -6.3059490919113159e-01 8.3401358127593994e-01</leafValues></_>
        <_>
          <internalNodes>
            0 -1 7 -3.4278645180165768e-03</internalNodes>
          <leafValues>
            4.8411998152732849e-01 -9.4402444362640381e-01</leafValues></_>
        <_>
          <internalNodes>
            0 -1 2 2.5635589845478535e-03</internalNodes>
          <leafValues>
            -6.8376743793487549e-01 6.1960661411285400e-01</leafValues></_></weakClassifiers></_>
    <!-- stage 3 -->
    <_>
      <maxWeakCount>2</maxWeakCount>
      <stageThreshold>-3.2196789979934692e-01</stageThreshold>
      <weakClassifiers>
        <_>
          <internalNodes>
            0 -1 15 -7.2924634441733360e-03</internalNodes>
          <leafValues>
            -7.0270270109176636e-01 6.2579280138015747e-01</leafValues></_>
        <_>
          <internalNodes>
            0 -1 5 1.8702715635299683e-02</internalNodes>
          <leafValues>
            -9.4776070117950439e-01 4.1890761256217957e-01</leafValues></_></weakClassifiers></_>
    <!-- stage 4 -->
    <_>
      <maxWeakCount>5</maxWeakCount>
      <stageThreshold>-8.8326066732406616e-01</stageThreshold>
      <weakClassifiers>
        <_>
          <internalNodes>
            0 -1 10 -3.5853981971740723e-02</internalNodes>
          <leafValues>
            -9.0966719388961792e-01 5.2342486381530762e-01</leafValues></_>
        <_>
          <internalNodes>
            0 -1 11 3.4914836287498474e-03</internalNodes>
          <leafValues>
            -9.6600437164306641e-01 3.0613246560096741e-01</leafValues></_>
        <_>
          <internalNodes>
            0 -1 1 6.6512422636151314e-03</internalNodes>
          <leafValues>
            -5.6172347068786621e-01 6.8108314275741577e-01</leafValues></_>
        <_>
          <internalNodes>
            0 -1 4 -3.7794588133692741e-03</internalNodes>
          <leafValues>
            7.5372552871704102e-01 -4.7632396221160889e-01</leafValues></_>
        <_>
          <internalNodes>
            0 -1 6 -1.3646473176777363e-02</internalNodes>
          <leafValues>
            7.5832146406173706e-01 -4.3850749731063843e-01</leafValues></_></weakClassifiers></_>
    <!-- stage 5 -->
    <_>
      <maxWeakCount>5</maxWeakCount>
      <stageThreshold>-1.1378607749938965e+00</stageThreshold>
      <weakClassifiers>
        <_>
          <internalNodes>
            0 -1 16 -1.2824651785194874e-03</internalNodes>
          <leafValues>
            -5.6204378604888916e-01 6.9680112600326538e-01</leafValues></_>
        <_>
          <internalNodes>
            0 -1 3 -7.3564252816140652e-03</internalNodes>
          <leafValues>
            3.9671763777732849e-01 -8.9204174280166626e-01</leafValues></_>
        <_>
          <internalNodes>
            0 -1 8 -1.1913946364074945e-03</internalNodes>
          <leafValues>
            3.5757270455360413e-01 -7.7523142099380493e-01</leafValues></_>
        <_>
          <internalNodes>
            0 -1 20 5.7866731658577919e-03</internalNodes>
          <leafValues>
            -4.1954183578491211e-01 8.0427169799804688e-01</leafValues></_>
        <_>
          <internalNodes>
            0 -1 14 -2.0599323324859142e-03</internalNodes>
          <leafValues>
            3.7819385528564453e-01 -9.2757219076156616e-01</leafValues></_></weakClassifiers></_></stages>
  <features>
    <_>
      <rects>
        <_>
          10 17 4 20 -1.</_>
        <_>
          10 17 2 10 2.</_>
        <_>
          12 27 2 10 2.</_></rects>
      <tilted>0</tilted></_>
    <_>
      <rects>
        <_>
          10 18 4 20 -1.</_>
        <_>
          10 18 2 10 2.</_>
        <_>
          12 28 2 10 2.</_></rects>
      <tilted>0</tilted></_>
    <_>
      <rects>
        <_>
          13 6 8 8 -1.</_>
        <_>
          13 6 4 4 2.</_>
        <_>
          17 10 4 4 2.</_></rects>
      <tilted>0</tilted></_>
    <_>
      <rects>
        <_>
          13 6 22 14 -1.</_>
        <_>
          13 6 11 7 2.</_>
        <_>
          24 13 11 7 2.</_></rects>
      <tilted>0</tilted></_>
    <_>
      <rects>
        <_>
          13 11 6 8 -1.</_>
        <_>
          13 11 3 4 2.</_>
        <_>
          16 15 3 4 2.</_></rects>
      <tilted>0</tilted></_>
    <_>
      <rects>
        <_>
          13 23 21 16 -1.</_>
        <_>
          13 31 21 8 2.</_></rects>
      <tilted>0</tilted></_>
    <_>
      <rects>
        <_>
          14 1 23 6 -1.</_>
        <_>
          14 4 23 3 2.</_></rects>
      <tilted>0</tilted></_>
    <_>
      <rects>
        <_>
          15 20 15 6 -1.</_>
        <_>
          15 23 15 3 2.</_></rects>
      <tilted>0</tilted></_>
    <_>
      <rects>
        <_>
          16 37 14 4 -1.</_>
        <_>
          16 39 14 2 2.</_></rects>
      <tilted>0</tilted></_>
    <_>
      <rects>
        <_>
          17 32 15 6 -1.</_>
        <_>
          17 35 15 3 2.</_></rects>
      <tilted>0</tilted></_>
    <_>
      <rects>
        <_>
          17 33 14 9 -1.</_>
        <_>
          17 36 14 3 2.</_></rects>
      <tilted>0</tilted></_>
    <_>
      <rects>
        <_>
          18 15 17 8 -1.</_>
        <_>
          18 19 17 4 2.</_></rects>
      <tilted>0</tilted></_>
    <_>
      <rects>
        <_>
          18 16 13 4 -1.</_>
        <_>
          18 18 13 2 2.</_></rects>
      <tilted>0</tilted></_>
    <_>
      <rects>
        <_>
          20 13 11 15 -1.</_>
        <_>
          20 18 11 5 2.</_></rects>
      <tilted>0</tilted></_>
    <_>
      <rects>
        <_>
          22 13 16 8 -1.</_>
        <_>
          22 13 8 4 2.</_>
        <_>
          30 17 8 4 2.</_></rects>
      <tilted>0</tilted></_>
    <_>
      <rects>
        <_>
          22 17 12 5 -1.</_>
        <_>
          26 17 4 5 2.</_></rects>
      <tilted>0</tilted></_>
    <_>
      <rects>
        <_>
          22 19 12 4 -1.</_>
        <_>
          26 19 4 4 2.</_></rects>
      <tilted>0</tilted></_>
    <_>
      <rects>
        <_>
          23 12 6 10 -1.</_>
        <_>
          23 12 3 5 2.</_>
        <_>
          26 17 3 5 2.</_></rects>
      <tilted>0</tilted></_>
    <_>
      <rects>
        <_>
          24 27 16 8 -1.</_>
        <_>
          32 27 8 8 2.</_></rects>
      <tilted>0</tilted></_>
    <_>
      <rects>
        <_>
          25 7 11 14 -1.</_>
        <_>
          25 14 11 7 2.</_></rects>
      <tilted>0</tilted></_>
    <_>
      <rects>
        <_>
          35 25 4 11 -1.</_>
        <_>
          37 25 2 11 2.</_></rects>
      <tilted>0</tilted></_></features></cascade>
</opencv_storage>
